<?xml version="1.0" encoding="UTF-8"?>
<!-- This network was created in GeNIe Academic, which can be used for academic teaching and research purposes only -->
<smile version="1.0" id="flag_GeNIe_categories" numsamples="10000" discsamples="10000">
	<nodes>
		<cpt id="text">
			<state id="State0" />
			<state id="State1" />
			<probabilities>0.9175257731958762 0.08247422680412371</probabilities>
		</cpt>
		<cpt id="circles">
			<state id="State0" />
			<state id="State1" />
			<state id="State2" />
			<state id="State4" />
			<parents>text</parents>
			<probabilities>0.8707865168539326 0.1179775280898876 0.005617977528089887 0.005617977528089887 0.6029411764705882 0.3676470588235294 0.01470588235294118 0.01470588235294118</probabilities>
		</cpt>
		<cpt id="saltires">
			<state id="State0" />
			<state id="State1" />
			<parents>circles</parents>
			<probabilities>0.9333333333333333 0.06666666666666667 0.7407407407407407 0.2592592592592592 0.75 0.25 0.75 0.25</probabilities>
		</cpt>
		<cpt id="crosses">
			<state id="State0" />
			<state id="State1" />
			<state id="State2" />
			<parents>circles saltires</parents>
			<probabilities>0.9247311827956989 0.07311827956989246 0.002150537634408602 0.09090909090909091 0.7272727272727273 0.1818181818181818 0.9682539682539685 0.01587301587301588 0.01587301587301588 0.1666666666666667 0.7916666666666669 0.04166666666666667 0.6666666666666667 0.1666666666666667 0.1666666666666667 0.3333333333333333 0.3333333333333333 0.3333333333333333 0.6666666666666667 0.1666666666666667 0.1666666666666667 0.3333333333333333 0.3333333333333333 0.3333333333333333</probabilities>
		</cpt>
		<cpt id="religion">
			<state id="no_animate___catholic__hindu__muslim__others" />
			<state id="uncertain_animate___ethnic__marxist" />
			<state id="with_animate___buddhist__other_christian" />
			<parents>crosses</parents>
			<probabilities>0.4910179640718563 0.251497005988024 0.2574850299401198 0.08974358974358976 0.01282051282051282 0.8974358974358975 0.1111111111111111 0.1111111111111111 0.7777777777777778</probabilities>
		</cpt>
		<cpt id="language">
			<state id="English" />
			<state id="no_animate___arabic__French__German__Jap_Turk_Fin_Mag" />
			<state id="uncertain_animate___chinese__slavic__spanish__other_indo_eur__other" />
			<parents>religion</parents>
			<probabilities>0.03571428571428571 0.4285714285714285 0.5357142857142857 0.09523809523809523 0.1428571428571428 0.7619047619047619 0.5294117647058824 0.05882352941176471 0.4117647058823529</probabilities>
		</cpt>
		<cpt id="zone">
			<state id="NE" />
			<state id="NW" />
			<state id="SE" />
			<state id="SW" />
			<parents>language</parents>
			<probabilities>0.04651162790697674 0.6279069767441861 0.186046511627907 0.1395348837209302 0.7608695652173912 0.1956521739130435 0.02173913043478261 0.02173913043478261 0.5142857142857143 0.2095238095238096 0.1904761904761905 0.08571428571428572</probabilities>
		</cpt>
		<cpt id="landmass">
			<state id="Europe" />
			<state id="uncertain_animate___africa__asia__s_america" />
			<state id="with_animate___n_america__oceania" />
			<parents>zone religion</parents>
			<probabilities>0.2291666666666667 0.75 0.02083333333333333 0.3968253968253969 0.5873015873015873 0.01587301587301587 0.3913043478260869 0.4347826086956522 0.1739130434782609 0.1304347826086956 0.4782608695652174 0.3913043478260869 0.03703703703703703 0.8148148148148148 0.1481481481481481 0.1481481481481481 0.07407407407407407 0.7777777777777777 0.08333333333333333 0.5833333333333334 0.3333333333333333 0.02222222222222222 0.8888888888888887 0.08888888888888886 0.02564102564102564 0.3333333333333333 0.6410256410256411 0.0303030303030303 0.8484848484848484 0.1212121212121212 0.3333333333333333 0.3333333333333333 0.3333333333333333 0.04761904761904762 0.3333333333333333 0.619047619047619</probabilities>
		</cpt>
		<cpt id="population">
			<state id="s1_below_4" />
			<state id="s2_4_14" />
			<state id="s3_14_34" />
			<state id="s4_34_up" />
			<parents>language</parents>
			<probabilities>0.8837209302325582 0.02325581395348837 0.04651162790697674 0.04651162790697674 0.4347826086956522 0.3695652173913043 0.08695652173913043 0.108695652173913 0.4095238095238096 0.2571428571428572 0.1619047619047619 0.1714285714285714</probabilities>
		</cpt>
		<cpt id="area">
			<state id="s1_below_30" />
			<state id="s2_30_471" />
			<state id="s3_471_1210" />
			<state id="s4_1210_up" />
			<parents>population</parents>
			<probabilities>0.6435643564356436 0.2871287128712871 0.0297029702970297 0.0396039603960396 0.08888888888888889 0.6444444444444445 0.1555555555555556 0.1111111111111111 0.01041666666666667 0.3854166666666666 0.2604166666666666 0.34375 0.009615384615384616 0.3557692307692308 0.3173076923076923 0.3173076923076923</probabilities>
		</cpt>
		<cpt id="bars">
			<state id="State0" />
			<state id="State1" />
			<state id="State2" />
			<state id="State3" />
			<state id="State5" />
			<parents>circles</parents>
			<probabilities>0.7939393939393939 0.03636363636363636 0.04242424242424243 0.1212121212121212 0.006060606060606061 0.9714285714285715 0.007142857142857144 0.007142857142857144 0.007142857142857144 0.007142857142857144 0.1 0.1 0.1 0.6 0.1 0.6000000000000001 0.1 0.1 0.1 0.1</probabilities>
		</cpt>
		<cpt id="quarters">
			<state id="State0" />
			<state id="State1" />
			<state id="State4" />
			<parents>crosses</parents>
			<probabilities>0.940119760479042 0.05389221556886228 0.005988023952095809 0.435897435897436 0.5512820512820513 0.01282051282051282 0.1111111111111111 0.7777777777777777 0.1111111111111111</probabilities>
		</cpt>
		<cpt id="stripes">
			<state id="s1_below_1" />
			<state id="s2_1_8" />
			<state id="s3_8_12" />
			<state id="s4_12_up" />
			<parents>bars saltires quarters</parents>
			<probabilities>0.4711538461538462 0.525 0.001923076923076923 0.001923076923076923 0.3636363636363636 0.1818181818181818 0.2727272727272727 0.1818181818181818 0.625 0.125 0.125 0.125 0.65 0.25 0.05 0.05 0.95 0.01666666666666667 0.01666666666666667 0.01666666666666667 0.25 0.25 0.25 0.25 0.3214285714285714 0.6071428571428571 0.03571428571428571 0.03571428571428571 0.25 0.25 0.25 0.25 0.25 0.25 0.25 0.25 0.25 0.25 0.25 0.25 0.25 0.25 0.25 0.25 0.25 0.25 0.25 0.25 0.90625 0.03125 0.03125 0.03125 0.25 0.25 0.25 0.25 0.25 0.25 0.25 0.25 0.25 0.25 0.25 0.25 0.25 0.25 0.25 0.25 0.25 0.25 0.25 0.25 0.9659090909090909 0.01136363636363636 0.01136363636363636 0.01136363636363636 0.25 0.25 0.25 0.25 0.25 0.25 0.25 0.25 0.25 0.25 0.25 0.25 0.25 0.25 0.25 0.25 0.25 0.25 0.25 0.25 0.625 0.125 0.125 0.125 0.25 0.25 0.25 0.25 0.25 0.25 0.25 0.25 0.25 0.25 0.25 0.25 0.25 0.25 0.25 0.25 0.25 0.25 0.25 0.25</probabilities>
		</cpt>
		<cpt id="red">
			<state id="State0" />
			<state id="State1" />
			<probabilities>0.211340206185567 0.788659793814433</probabilities>
		</cpt>
		<cpt id="gold">
			<state id="State0" />
			<state id="State1" />
			<probabilities>0.5309278350515464 0.4690721649484536</probabilities>
		</cpt>
		<cpt id="white">
			<state id="State0" />
			<state id="State1" />
			<parents>gold text</parents>
			<probabilities>0.06930693069306931 0.9306930693069307 0.1666666666666667 0.8333333333333333 0.5194805194805195 0.4805194805194806 0.07142857142857142 0.9285714285714285</probabilities>
		</cpt>
		<cpt id="orange">
			<state id="State0" />
			<state id="State1" />
			<parents>crosses</parents>
			<probabilities>0.8862275449101797 0.1137724550898204 0.76 0.24 0.5 0.5</probabilities>
		</cpt>
		<cpt id="colours">
			<state id="s1_below_2" />
			<state id="s2_2_4" />
			<state id="s3_4_up" />
			<parents>red gold white orange</parents>
			<probabilities>0.6666666666666667 0.1666666666666667 0.1666666666666667 0.3333333333333333 0.3333333333333333 0.3333333333333333 0.8070175438596491 0.1754385964912281 0.01754385964912281 0.1904761904761905 0.761904761904762 0.04761904761904762 0.2916666666666667 0.6666666666666667 0.04166666666666667 0.1666666666666667 0.6666666666666667 0.1666666666666667 0.03703703703703703 0.9259259259259258 0.03703703703703703 0.3333333333333333 0.3333333333333333 0.3333333333333333 0.7222222222222222 0.2222222222222222 0.05555555555555556 0.1666666666666667 0.6666666666666667 0.1666666666666667 0.2222222222222222 0.7729468599033816 0.004830917874396135 0.06666666666666667 0.6666666666666667 0.2666666666666667 0.1666666666666667 0.8229166666666669 0.01041666666666667 0.1111111111111111 0.4444444444444444 0.4444444444444444 0.01075268817204301 0.3978494623655914 0.5913978494623655 0.02564102564102564 0.02564102564102564 0.9487179487179488</probabilities>
		</cpt>
		<cpt id="icon">
			<state id="State0" />
			<state id="State1" />
			<parents>colours</parents>
			<probabilities>0.9302325581395349 0.06976744186046512 0.8067226890756303 0.1932773109243697 0.28125 0.71875</probabilities>
		</cpt>
		<cpt id="animate">
			<state id="State0" />
			<state id="State1" />
			<parents>language religion colours gold orange icon text</parents>
			<probabilities>0.5 0.5 0.5 0.5 0.5 0.5 0.5 0.5 0.5 0.5 0.5 0.5 0.5 0.5 0.5 0.5 0.5 0.5 0.5 0.5 0.5 0.5 0.5 0.5 0.5 0.5 0.5 0.5 0.5 0.5 0.5 0.5 0.5 0.5 0.5 0.5 0.5 0.5 0.5 0.5 0.75 0.25 0.5 0.5 0.5 0.5 0.5 0.5 0.75 0.25 0.5 0.5 0.5 0.5 0.5 0.5 0.5 0.5 0.5 0.5 0.5 0.5 0.5 0.5 0.5 0.5 0.5 0.5 0.5 0.5 0.5 0.5 0.5 0.5 0.5 0.5 0.5 0.5 0.5 0.5 0.75 0.25 0.5 0.5 0.5 0.5 0.5 0.5 0.5 0.5 0.5 0.5 0.5 0.5 0.5 0.5 0.5 0.5 0.5 0.5 0.5 0.5 0.5 0.5 0.5 0.5 0.5 0.5 0.5 0.5 0.5 0.5 0.5 0.5 0.5 0.5 0.5 0.5 0.5 0.5 0.5 0.5 0.5 0.5 0.5 0.5 0.5 0.5 0.8333333333333333 0.1666666666666667 0.5 0.5 0.5 0.5 0.5 0.5 0.5 0.5 0.5 0.5 0.5 0.5 0.5 0.5 0.5 0.5 0.5 0.5 0.5 0.5 0.5 0.5 0.5 0.5 0.5 0.5 0.5 0.5 0.5 0.5 0.5 0.5 0.5 0.5 0.5 0.5 0.5 0.5 0.5 0.5 0.5 0.5 0.5 0.5 0.5 0.5 0.5 0.5 0.5 0.5 0.5 0.5 0.5 0.5 0.5 0.5 0.5 0.5 0.5 0.5 0.5 0.5 0.25 0.75 0.5 0.5 0.5 0.5 0.5 0.5 0.5 0.5 0.5 0.5 0.5 0.5 0.5 0.5 0.5 0.5 0.5 0.5 0.5 0.5 0.5 0.5 0.5 0.5 0.5 0.5 0.5 0.5 0.5 0.5 0.9444444444444444 0.05555555555555555 0.5 0.5 0.5 0.5 0.5 0.5 0.25 0.75 0.5 0.5 0.5 0.5 0.5 0.5 0.8333333333333333 0.1666666666666667 0.5 0.5 0.6666666666666666 0.3333333333333333 0.25 0.75 0.5 0.5 0.5 0.5 0.5 0.5 0.5 0.5 0.5 0.5 0.5 0.5 0.5 0.5 0.5 0.5 0.5 0.5 0.5 0.5 0.5 0.5 0.5 0.5 0.75 0.25 0.5 0.5 0.1666666666666667 0.8333333333333333 0.1666666666666667 0.8333333333333333 0.5 0.5 0.5 0.5 0.25 0.75 0.1 0.9 0.9545454545454546 0.04545454545454546 0.5 0.5 0.5 0.5 0.75 0.25 0.75 0.25 0.5 0.5 0.5 0.5 0.5 0.5 0.75 0.25 0.5 0.5 0.5 0.5 0.5 0.5 0.5 0.5 0.5 0.5 0.5 0.5 0.5 0.5 0.9642857142857142 0.03571428571428571 0.5 0.5 0.75 0.25 0.5 0.5 0.5 0.5 0.5 0.5 0.5 0.5 0.5 0.5 0.9 0.1 0.25 0.75 0.75 0.25 0.5 0.5 0.5 0.5 0.5 0.5 0.5 0.5 0.5 0.5 0.5 0.5 0.5 0.5 0.5 0.5 0.5 0.5 0.5 0.5 0.5 0.5 0.5 0.5 0.5 0.5 0.5 0.5 0.5 0.5 0.75 0.25 0.5 0.5 0.5 0.5 0.5 0.5 0.5 0.5 0.5 0.5 0.75 0.25 0.5 0.5 0.5 0.5 0.5 0.5 0.5 0.5 0.5 0.5 0.5 0.5 0.5 0.5 0.5 0.5 0.5 0.5 0.5 0.5 0.5 0.5 0.5 0.5 0.5 0.5 0.5 0.5 0.5 0.5 0.8333333333333333 0.1666666666666667 0.5 0.5 0.5 0.5 0.5 0.5 0.5 0.5 0.5 0.5 0.5 0.5 0.5 0.5 0.8333333333333333 0.1666666666666667 0.5 0.5 0.75 0.25 0.5 0.5 0.5 0.5 0.5 0.5 0.5 0.5 0.5 0.5 0.5 0.5 0.5 0.5 0.5 0.5 0.5 0.5 0.5 0.5 0.5 0.5 0.5 0.5 0.5 0.5 0.5 0.5 0.5 0.5 0.5 0.5 0.5 0.5 0.5 0.5 0.5 0.5 0.5 0.5 0.5 0.5 0.8333333333333333 0.1666666666666667 0.5 0.5 0.5 0.5 0.5 0.5 0.5 0.5 0.5 0.5 0.5 0.5 0.5 0.5 0.5 0.5 0.5 0.5 0.5 0.5 0.5 0.5 0.5 0.5 0.5 0.5 0.5 0.5 0.5 0.5 0.5 0.5 0.5 0.5 0.5 0.5 0.5 0.5 0.5 0.5 0.5 0.5 0.5 0.5 0.5 0.5 0.8333333333333333 0.1666666666666667 0.5 0.5 0.5 0.5 0.5 0.5 0.5 0.5 0.5 0.5 0.5 0.5 0.5 0.5 0.5 0.5 0.5 0.5 0.5 0.5 0.5 0.5 0.5 0.5 0.5 0.5 0.5 0.5 0.5 0.5 0.5 0.5 0.5 0.5 0.5 0.5 0.5 0.5 0.5 0.5 0.5 0.5 0.5 0.5 0.5 0.5 0.9642857142857142 0.03571428571428571 0.5 0.5 0.5 0.5 0.5 0.5 0.5 0.5 0.5 0.5 0.5 0.5 0.5 0.5 0.75 0.25 0.5 0.5 0.5 0.5 0.5 0.5 0.5 0.5 0.5 0.5 0.5 0.5 0.5 0.5 0.9375 0.0625 0.5 0.5 0.8333333333333333 0.1666666666666667 0.75 0.25 0.5 0.5 0.5 0.5 0.75 0.25 0.5 0.5 0.9545454545454546 0.04545454545454546 0.75 0.25 0.75 0.25 0.25 0.75 0.5 0.5 0.5 0.5 0.5 0.5 0.5 0.5 0.5 0.5 0.5 0.5 0.5 0.5 0.5 0.5 0.5 0.5 0.5 0.5 0.5 0.5 0.5 0.5 0.5 0.5 0.5 0.5 0.8333333333333333 0.1666666666666667 0.25 0.75 0.25 0.75 0.5 0.5 0.25 0.75 0.5 0.5 0.75 0.25 0.5 0.5 0.5 0.5 0.5 0.5 0.5 0.5 0.5 0.5 0.5 0.5 0.5 0.5 0.8333333333333333 0.1666666666666667 0.5 0.5 0.75 0.25 0.5 0.5 0.5 0.5 0.5 0.5 0.5 0.5 0.5 0.5 0.9500000000000001 0.05 0.5 0.5 0.8333333333333333 0.1666666666666667 0.5 0.5 0.25 0.75 0.5 0.5 0.5 0.5 0.5 0.5 0.8 0.2 0.75 0.25 0.6666666666666666 0.3333333333333333 0.5 0.5 0.5 0.5 0.5 0.5 0.25 0.75 0.5 0.5 0.5 0.5 0.5 0.5 0.5 0.5 0.5 0.5 0.5 0.5 0.5 0.5 0.5 0.5 0.5 0.5 0.5 0.5 0.5 0.5 0.3333333333333333 0.6666666666666666 0.5 0.5 0.5 0.5 0.5 0.5 0.5 0.5 0.25 0.75 0.9285714285714285 0.07142857142857142 0.5 0.5 0.5 0.5 0.5 0.5 0.5 0.5 0.5 0.5 0.5 0.5 0.5 0.5 0.75 0.25 0.5 0.5 0.75 0.25 0.5 0.5 0.5 0.5 0.5 0.5 0.5 0.5 0.5 0.5 0.9444444444444444 0.05555555555555555 0.5 0.5 0.5 0.5 0.5 0.5 0.25 0.75 0.5 0.5 0.5 0.5 0.5 0.5 0.75 0.25 0.5 0.5 0.25 0.75 0.5 0.5 0.5 0.5 0.5 0.5 0.25 0.75 0.5 0.5 0.5 0.5 0.5 0.5 0.5 0.5 0.5 0.5 0.75 0.25 0.5 0.5 0.5 0.5 0.5 0.5 0.5 0.5 0.5 0.5 0.5 0.5 0.5 0.5 0.5 0.5 0.5 0.5 0.75 0.25 0.25 0.75</probabilities>
		</cpt>
		<cpt id="mainhue">
			<state id="black" />
			<state id="blue" />
			<state id="brown" />
			<state id="gold" />
			<state id="green" />
			<state id="orange" />
			<state id="red" />
			<state id="white" />
			<parents>red white orange</parents>
			<probabilities>0.01388888888888889 0.3472222222222222 0.01388888888888889 0.01388888888888889 0.5694444444444444 0.01388888888888889 0.01388888888888889 0.01388888888888889 0.0625 0.0625 0.0625 0.5625 0.0625 0.0625 0.0625 0.0625 0.004629629629629629 0.4861111111111111 0.004629629629629629 0.004629629629629629 0.3009259259259259 0.004629629629629629 0.004629629629629629 0.1898148148148148 0.01785714285714286 0.01785714285714286 0.3035714285714285 0.01785714285714286 0.01785714285714286 0.3035714285714285 0.01785714285714286 0.3035714285714285 0.05743243243243244 0.003378378378378379 0.003378378378378379 0.3006756756756757 0.1385135135135135 0.003378378378378379 0.4898648648648649 0.003378378378378379 0.03125 0.03125 0.03125 0.28125 0.53125 0.03125 0.03125 0.03125 0.03156565656565657 0.1426767676767677 0.001262626262626263 0.06186868686868687 0.1022727272727273 0.001262626262626263 0.5063131313131314 0.1527777777777778 0.007352941176470588 0.5955882352941176 0.007352941176470588 0.007352941176470588 0.06617647058823529 0.125 0.1838235294117647 0.007352941176470588</probabilities>
		</cpt>
		<cpt id="topleft">
			<state id="black" />
			<state id="blue" />
			<state id="gold" />
			<state id="green" />
			<state id="orange" />
			<state id="red" />
			<state id="white" />
			<parents>mainhue saltires</parents>
			<probabilities>0.5238095238095237 0.02380952380952381 0.02380952380952381 0.02380952380952381 0.02380952380952381 0.3571428571428571 0.02380952380952381 0.1428571428571429 0.1428571428571429 0.1428571428571429 0.1428571428571429 0.1428571428571429 0.1428571428571429 0.1428571428571429 0.004926108374384237 0.8325123152709361 0.004926108374384237 0.0394088669950739 0.004926108374384237 0.07389162561576355 0.0394088669950739 0.01098901098901099 0.01098901098901099 0.01098901098901099 0.01098901098901099 0.01098901098901099 0.01098901098901099 0.9340659340659341 0.04761904761904762 0.380952380952381 0.04761904761904762 0.04761904761904762 0.04761904761904762 0.04761904761904762 0.380952380952381 0.1428571428571429 0.1428571428571429 0.1428571428571429 0.1428571428571429 0.1428571428571429 0.1428571428571429 0.1428571428571429 0.1654135338345865 0.1654135338345865 0.2180451127819549 0.1654135338345865 0.007518796992481203 0.2180451127819549 0.06015037593984962 0.07142857142857144 0.07142857142857144 0.07142857142857144 0.07142857142857144 0.07142857142857144 0.07142857142857144 0.5714285714285715 0.06912442396313365 0.06912442396313365 0.004608294930875577 0.7465437788018434 0.004608294930875577 0.06912442396313365 0.03686635944700462 0.07142857142857144 0.07142857142857144 0.5714285714285715 0.07142857142857144 0.07142857142857144 0.07142857142857144 0.07142857142857144 0.03571428571428571 0.03571428571428571 0.03571428571428571 0.03571428571428571 0.7857142857142857 0.03571428571428571 0.03571428571428571 0.07142857142857144 0.07142857142857144 0.07142857142857144 0.07142857142857144 0.5714285714285715 0.07142857142857144 0.07142857142857144 0.06004140786749483 0.1325051759834368 0.0165631469979296 0.04554865424430642 0.002070393374741201 0.6397515527950312 0.10351966873706 0.03571428571428571 0.03571428571428571 0.03571428571428571 0.03571428571428571 0.03571428571428571 0.03571428571428571 0.7857142857142857 0.006211180124223602 0.1801242236024845 0.006211180124223602 0.09316770186335403 0.006211180124223602 0.09316770186335403 0.6149068322981366 0.1428571428571429 0.1428571428571429 0.1428571428571429 0.1428571428571429 0.1428571428571429 0.1428571428571429 0.1428571428571429</probabilities>
		</cpt>
		<cpt id="botright">
			<state id="black" />
			<state id="blue" />
			<state id="brown" />
			<state id="gold" />
			<state id="green" />
			<state id="orange" />
			<state id="red" />
			<state id="white" />
			<parents>mainhue</parents>
			<probabilities>0.3541666666666666 0.02083333333333333 0.02083333333333333 0.1875 0.1875 0.02083333333333333 0.1875 0.02083333333333333 0.003048780487804878 0.8567073170731707 0.003048780487804878 0.003048780487804878 0.0274390243902439 0.003048780487804878 0.100609756097561 0.003048780487804878 0.04166666666666666 0.375 0.375 0.04166666666666666 0.04166666666666666 0.04166666666666666 0.04166666666666666 0.04166666666666666 0.00625 0.00625 0.00625 0.35625 0.15625 0.00625 0.40625 0.05625 0.03515625 0.09765625 0.03515625 0.03515625 0.56640625 0.00390625 0.19140625 0.03515625 0.025 0.225 0.025 0.025 0.425 0.025 0.225 0.025 0.08506944444444443 0.05729166666666666 0.001736111111111111 0.001736111111111111 0.1961805555555556 0.001736111111111111 0.5711805555555555 0.08506944444444443 0.005434782608695652 0.1358695652173913 0.005434782608695652 0.005434782608695652 0.04891304347826086 0.04891304347826086 0.3532608695652174 0.3967391304347826</probabilities>
		</cpt>
		<cpt id="green">
			<state id="State0" />
			<state id="State1" />
			<parents>animate topleft botright</parents>
			<probabilities>0.5 0.5 0.5 0.5 0.5 0.5 0.8333333333333333 0.1666666666666667 0.08333333333333333 0.9166666666666666 0.5 0.5 0.875 0.125 0.5 0.5 0.5 0.5 0.98 0.02 0.5 0.5 0.25 0.75 0.25 0.75 0.5 0.5 0.9615384615384616 0.03846153846153846 0.75 0.25 0.5 0.5 0.5 0.5 0.5 0.5 0.25 0.75 0.5 0.5 0.5 0.5 0.8333333333333333 0.1666666666666667 0.75 0.25 0.5 0.5 0.1 0.9 0.5 0.5 0.1666666666666667 0.8333333333333333 0.04545454545454546 0.9545454545454546 0.25 0.75 0.05 0.9500000000000001 0.25 0.75 0.5 0.5 0.25 0.75 0.5 0.5 0.5 0.5 0.1666666666666667 0.8333333333333333 0.5 0.5 0.5 0.5 0.5 0.5 0.2857142857142857 0.7142857142857142 0.8333333333333333 0.1666666666666667 0.5 0.5 0.5 0.5 0.03571428571428571 0.9642857142857142 0.5 0.5 0.8947368421052631 0.1052631578947368 0.875 0.125 0.5 0.5 0.8333333333333333 0.1666666666666667 0.75 0.25 0.75 0.25 0.125 0.875 0.5 0.5 0.9444444444444444 0.05555555555555555 0.8888888888888888 0.1111111111111111 0.5 0.5 0.5 0.5 0.5 0.5 0.5 0.5 0.25 0.75 0.5 0.5 0.75 0.25 0.5 0.5 0.5 0.5 0.5 0.5 0.5 0.5 0.5 0.5 0.25 0.75 0.5 0.5 0.6666666666666666 0.3333333333333333 0.5 0.5 0.5 0.5 0.5 0.5 0.5 0.5 0.25 0.75 0.5 0.5 0.5 0.5 0.25 0.75 0.5 0.5 0.5 0.5 0.5 0.5 0.25 0.75 0.5 0.5 0.125 0.875 0.5 0.5 0.25 0.75 0.5 0.5 0.5 0.5 0.5 0.5 0.5 0.5 0.5 0.5 0.5 0.5 0.5 0.5 0.75 0.25 0.5 0.5 0.8333333333333333 0.1666666666666667 0.5 0.5 0.5 0.5 0.5 0.5 0.25 0.75 0.5 0.5 0.2857142857142857 0.7142857142857142 0.5 0.5 0.5 0.5 0.125 0.875 0.5 0.5 0.75 0.25 0.5 0.5 0.5 0.5 0.1666666666666667 0.8333333333333333 0.1666666666666667 0.8333333333333333</probabilities>
		</cpt>
		<cpt id="blue">
			<state id="State0" />
			<state id="State1" />
			<parents>colours topleft</parents>
			<probabilities>0.75 0.25 0.04545454545454546 0.9545454545454546 0.5 0.5 0.9375 0.0625 0.5 0.5 0.9705882352941176 0.02941176470588235 0.7777777777777777 0.2222222222222222 0.9375 0.0625 0.01666666666666667 0.9833333333333333 0.6000000000000001 0.4 0.7000000000000001 0.3 0.6666666666666666 0.3333333333333333 0.6857142857142857 0.3142857142857143 0.35 0.65 0.75 0.25 0.1 0.9 0.25 0.75 0.6000000000000001 0.4 0.25 0.75 0.2 0.8 0.03846153846153846 0.9615384615384616</probabilities>
		</cpt>
		<cpt id="black">
			<state id="State0" />
			<state id="State1" />
			<parents>topleft</parents>
			<probabilities>0.03846153846153846 0.9615384615384616 0.8837209302325582 0.1162790697674419 0.5 0.5 0.75 0.25 0.75 0.25 0.6964285714285714 0.3035714285714285 0.8536585365853658 0.1463414634146342</probabilities>
		</cpt>
		<cpt id="crescent">
			<state id="State0" />
			<state id="State1" />
			<parents>circles</parents>
			<probabilities>0.9454545454545454 0.05454545454545454 0.9629629629629629 0.03703703703703703 0.25 0.75 0.75 0.25</probabilities>
		</cpt>
	</nodes>
	<extensions>
		<genie version="1.0" app="GeNIe 5.0.5310.0 ACADEMIC" name="flag_GeNIe_categories">
			<node id="landmass">
				<name>landmass</name>
				<interior color="e5f6f7" />
				<outline color="000080" />
				<font color="000000" name="Arial" size="8" />
				<position>758 21 830 69</position>
				<barchart width="128" height="72" />
			</node>
			<node id="zone">
				<name>zone</name>
				<interior color="e5f6f7" />
				<outline color="000080" />
				<font color="000000" name="Arial" size="8" />
				<position>835 35 907 83</position>
				<barchart width="128" height="90" />
			</node>
			<node id="area">
				<name>area</name>
				<interior color="e5f6f7" />
				<outline color="000080" />
				<font color="000000" name="Arial" size="8" />
				<position>679 18 751 66</position>
				<barchart width="128" height="90" />
			</node>
			<node id="population">
				<name>population</name>
				<interior color="e5f6f7" />
				<outline color="000080" />
				<font color="000000" name="Arial" size="8" />
				<position>589 49 661 97</position>
				<barchart width="128" height="90" />
			</node>
			<node id="language">
				<name>language</name>
				<interior color="e5f6f7" />
				<outline color="000080" />
				<font color="000000" name="Arial" size="8" />
				<position>804 242 876 290</position>
				<barchart width="128" height="72" />
			</node>
			<node id="religion">
				<name>religion</name>
				<interior color="e5f6f7" />
				<outline color="000080" />
				<font color="000000" name="Arial" size="8" />
				<position>709 307 781 355</position>
				<barchart width="128" height="72" />
			</node>
			<node id="bars">
				<name>bars</name>
				<interior color="e5f6f7" />
				<outline color="000080" />
				<font color="000000" name="Arial" size="8" />
				<position>179 60 251 108</position>
				<barchart width="128" height="108" />
			</node>
			<node id="stripes">
				<name>stripes</name>
				<interior color="e5f6f7" />
				<outline color="000080" />
				<font color="000000" name="Arial" size="8" />
				<position>437 9 509 57</position>
				<barchart width="128" height="90" />
			</node>
			<node id="colours">
				<name>colours</name>
				<interior color="e5f6f7" />
				<outline color="000080" />
				<font color="000000" name="Arial" size="8" />
				<position>533 350 605 398</position>
				<barchart width="128" height="72" />
			</node>
			<node id="red">
				<name>red</name>
				<interior color="e5f6f7" />
				<outline color="000080" />
				<font color="000000" name="Arial" size="8" />
				<position>279 211 351 259</position>
				<barchart width="128" height="64" />
			</node>
			<node id="green">
				<name>green</name>
				<interior color="e5f6f7" />
				<outline color="000080" />
				<font color="000000" name="Arial" size="8" />
				<position>933 81 1005 129</position>
				<barchart width="128" height="64" />
			</node>
			<node id="blue">
				<name>blue</name>
				<interior color="e5f6f7" />
				<outline color="000080" />
				<font color="000000" name="Arial" size="8" />
				<position>677 103 749 151</position>
				<barchart width="128" height="64" />
			</node>
			<node id="gold">
				<name>gold</name>
				<interior color="e5f6f7" />
				<outline color="000080" />
				<font color="000000" name="Arial" size="8" />
				<position>368 471 440 519</position>
				<barchart width="128" height="64" />
			</node>
			<node id="white">
				<name>white</name>
				<interior color="e5f6f7" />
				<outline color="000080" />
				<font color="000000" name="Arial" size="8" />
				<position>288 286 360 334</position>
				<barchart width="128" height="64" />
			</node>
			<node id="black">
				<name>black</name>
				<interior color="e5f6f7" />
				<outline color="000080" />
				<font color="000000" name="Arial" size="8" />
				<position>671 191 743 239</position>
				<barchart width="128" height="64" />
			</node>
			<node id="orange">
				<name>orange</name>
				<interior color="e5f6f7" />
				<outline color="000080" />
				<font color="000000" name="Arial" size="8" />
				<position>411 403 483 451</position>
				<barchart width="128" height="64" />
			</node>
			<node id="mainhue">
				<name>mainhue</name>
				<interior color="e5f6f7" />
				<outline color="000080" />
				<font color="000000" name="Arial" size="8" />
				<position>423 236 495 284</position>
				<barchart width="128" height="162" />
			</node>
			<node id="circles">
				<name>circles</name>
				<interior color="e5f6f7" />
				<outline color="000080" />
				<font color="000000" name="Arial" size="8" />
				<position>133 219 205 267</position>
				<barchart width="128" height="90" />
			</node>
			<node id="crosses">
				<name>crosses</name>
				<interior color="e5f6f7" />
				<outline color="000080" />
				<font color="000000" name="Arial" size="8" />
				<position>244 8 316 56</position>
				<barchart width="128" height="72" />
			</node>
			<node id="saltires">
				<name>saltires</name>
				<interior color="e5f6f7" />
				<outline color="000080" />
				<font color="000000" name="Arial" size="8" />
				<position>276 152 348 200</position>
				<barchart width="128" height="64" />
			</node>
			<node id="quarters">
				<name>quarters</name>
				<interior color="e5f6f7" />
				<outline color="000080" />
				<font color="000000" name="Arial" size="8" />
				<position>499 105 571 153</position>
				<barchart width="128" height="72" />
			</node>
			<node id="crescent">
				<name>crescent</name>
				<interior color="e5f6f7" />
				<outline color="000080" />
				<font color="000000" name="Arial" size="8" />
				<position>50 122 122 170</position>
				<barchart width="128" height="64" />
			</node>
			<node id="icon">
				<name>icon</name>
				<interior color="e5f6f7" />
				<outline color="000080" />
				<font color="000000" name="Arial" size="8" />
				<position>638 350 710 398</position>
				<barchart width="128" height="64" />
			</node>
			<node id="animate">
				<name>animate</name>
				<interior color="e5f6f7" />
				<outline color="000080" />
				<font color="000000" name="Arial" size="8" />
				<position>701 578 773 626</position>
				<barchart width="128" height="64" />
			</node>
			<node id="text">
				<name>text</name>
				<interior color="e5f6f7" />
				<outline color="000080" />
				<font color="000000" name="Arial" size="8" />
				<position>346 532 418 580</position>
				<barchart width="128" height="64" />
			</node>
			<node id="topleft">
				<name>topleft</name>
				<interior color="e5f6f7" />
				<outline color="000080" />
				<font color="000000" name="Arial" size="8" />
				<position>519 177 591 225</position>
				<barchart width="128" height="144" />
			</node>
			<node id="botright">
				<name>botright</name>
				<interior color="e5f6f7" />
				<outline color="000080" />
				<font color="000000" name="Arial" size="8" />
				<position>513 259 585 307</position>
				<barchart width="128" height="162" />
			</node>
			<textbox>
				<caption>Input file: flag_GeNIe_categories.csv\nData rows: 194\nElapsed time: 15.156s\n\nLearning algorithm: Bayesian Search\nAlgorithm parameters:\nIterations: 20\nMax parent count: 8\nSample size: 50\nLink probability: 0.1\nPrior link probability: 0.001\nSeed: 0\nMax search time: 0\nBackground knowledge was provided:\n  forced arcs: 7\n\nBest score in iteration 15: -5728.67\nEM Log Likelihood: -4437.67</caption>
				<font color="000000" name="Arial" size="8" />
				<position>34 337 221 589</position>
			</textbox>
		</genie>
	</extensions>
</smile>
